<?xml version="1.0"?>
<opencv_storage>
<stage9>
  <maxWeakCount>5</maxWeakCount>
  <stageThreshold>-5.7120090723037720e-01</stageThreshold>
  <weakClassifiers>
    <_>
      <internalNodes>
        0 -1 13893 -1.8328493461012840e-02</internalNodes>
      <leafValues>
        7.1428573131561279e-01 -6.3461536169052124e-01</leafValues></_>
    <_>
      <internalNodes>
        0 -1 123121 -7.7532778959721327e-04</internalNodes>
      <leafValues>
        9.6741497516632080e-01 -3.8031384348869324e-01</leafValues></_>
    <_>
      <internalNodes>
        0 -1 134787 7.2162994183599949e-03</internalNodes>
      <leafValues>
        -4.7646266222000122e-01 8.4129089117050171e-01</leafValues></_>
    <_>
      <internalNodes>
        0 -1 22143 3.2033072784543037e-05</internalNodes>
      <leafValues>
        4.8051831126213074e-01 -7.8267806768417358e-01</leafValues></_>
    <_>
      <internalNodes>
        0 -1 161236 -1.8750180970528163e-05</internalNodes>
      <leafValues>
        -6.3861387968063354e-01 4.3967270851135254e-01</leafValues></_></weakClassifiers></stage9>
</opencv_storage>
