<?xml version="1.0"?>
<opencv_storage>
<stage10>
  <maxWeakCount>100</maxWeakCount>
  <stageThreshold>-2.1081075668334961e+00</stageThreshold>
  <weakClassifiers>
    <_>
      <internalNodes>
        0 -1 59903 4.1715400293469429e-03</internalNodes>
      <leafValues>
        -7.7551019191741943e-01 8.0645161867141724e-01</leafValues></_>
    <_>
      <internalNodes>
        0 -1 149390 -1.0053826263174415e-03</internalNodes>
      <leafValues>
        9.7132831811904907e-01 -5.0961333513259888e-01</leafValues></_>
    <_>
      <internalNodes>
        0 -1 65538 -5.1773595623672009e-04</internalNodes>
      <leafValues>
        8.6173820495605469e-01 -4.7913512587547302e-01</leafValues></_>
    <_>
      <internalNodes>
        0 -1 71087 -1.6842491924762726e-02</internalNodes>
      <leafValues>
        1. -2.4552559852600098e-01</leafValues></_>
    <_>
      <internalNodes>
        0 -1 36422 2.4044245947152376e-04</internalNodes>
      <leafValues>
        -1.9278524816036224e-01 9.5441061258316040e-01</leafValues></_>
    <_>
      <internalNodes>
        0 -1 144927 9.2679262161254883e-03</internalNodes>
      <leafValues>
        -1.2409448623657227e-01 1.</leafValues></_>
    <_>
      <internalNodes>
        0 -1 161910 3.4579916246002540e-05</internalNodes>
      <leafValues>
        3.0335044860839844e-01 -8.5795247554779053e-01</leafValues></_>
    <_>
      <internalNodes>
        0 -1 110768 -4.8420345410704613e-03</internalNodes>
      <leafValues>
        1. -1.8821817636489868e-01</leafValues></_>
    <_>
      <internalNodes>
        0 -1 133495 -2.4329423467861488e-05</internalNodes>
      <leafValues>
        -7.6093548536300659e-01 1.9038744270801544e-01</leafValues></_>
    <_>
      <internalNodes>
        0 -1 107839 1.7905230633914471e-03</internalNodes>
      <leafValues>
        -1.3550393283367157e-01 1.</leafValues></_>
    <_>
      <internalNodes>
        0 -1 7676 -2.6962396805174649e-04</internalNodes>
      <leafValues>
        -1. 1.2167330831289291e-01</leafValues></_>
    <_>
      <internalNodes>
        0 -1 45323 -1.0926472023129463e-02</internalNodes>
      <leafValues>
        1. -1.1267098039388657e-01</leafValues></_>
    <_>
      <internalNodes>
        0 -1 31289 3.3554492983967066e-04</internalNodes>
      <leafValues>
        -1.6687134280800819e-02 1.</leafValues></_>
    <_>
      <internalNodes>
        0 -1 140341 -3.9730894059175625e-05</internalNodes>
      <leafValues>
        -1. 6.9279879331588745e-02</leafValues></_>
    <_>
      <internalNodes>
        0 -1 132057 8.5059856064617634e-04</internalNodes>
      <leafValues>
        -2.3231532424688339e-02 1.</leafValues></_>
    <_>
      <internalNodes>
        0 -1 23177 3.3997833728790283e-02</internalNodes>
      <leafValues>
        2.6404416188597679e-02 -1.</leafValues></_>
    <_>
      <internalNodes>
        0 -1 34 -7.3731178417801857e-05</internalNodes>
      <leafValues>
        1. -1.9424680620431900e-02</leafValues></_>
    <_>
      <internalNodes>
        0 -1 79212 -1.6216380754485726e-04</internalNodes>
      <leafValues>
        -1. 1.5161911025643349e-02</leafValues></_>
    <_>
      <internalNodes>
        0 -1 36361 -2.6525490102358162e-04</internalNodes>
      <leafValues>
        1. -1.1343547143042088e-02</leafValues></_>
    <_>
      <internalNodes>
        0 -1 130 5.9962698287563398e-05</internalNodes>
      <leafValues>
        -4.8658517926014611e-07 -1.</leafValues></_>
    <_>
      <internalNodes>
        0 -1 134 3.7963330396451056e-04</internalNodes>
      <leafValues>
        -2.2667811717838049e-03 1.</leafValues></_>
    <_>
      <internalNodes>
        0 -1 130 6.0735404258593917e-04</internalNodes>
      <leafValues>
        1.9571476150304079e-03 -1.</leafValues></_>
    <_>
      <internalNodes>
        0 -1 122 5.2055380365345627e-05</internalNodes>
      <leafValues>
        -1.9571490120142698e-03 1.</leafValues></_>
    <_>
      <internalNodes>
        0 -1 28 -1.9987564883194864e-05</internalNodes>
      <leafValues>
        -1. 1.6462022904306650e-03</leafValues></_>
    <_>
      <internalNodes>
        0 -1 28 -7.2961753176059574e-05</internalNodes>
      <leafValues>
        1. -1.6462033381685615e-03</leafValues></_>
    <_>
      <internalNodes>
        0 -1 28 -6.9829133281018585e-05</internalNodes>
      <leafValues>
        -1. 1.6462033381685615e-03</leafValues></_>
    <_>
      <internalNodes>
        0 -1 28 -7.2961753176059574e-05</internalNodes>
      <leafValues>
        1. -1.6462033381685615e-03</leafValues></_>
    <_>
      <internalNodes>
        0 -1 28 -6.9829133281018585e-05</internalNodes>
      <leafValues>
        -1. 1.6462033381685615e-03</leafValues></_>
    <_>
      <internalNodes>
        0 -1 28 -7.2961753176059574e-05</internalNodes>
      <leafValues>
        1. -1.6462033381685615e-03</leafValues></_>
    <_>
      <internalNodes>
        0 -1 28 -6.9829133281018585e-05</internalNodes>
      <leafValues>
        -1. 1.6462033381685615e-03</leafValues></_>
    <_>
      <internalNodes>
        0 -1 28 -7.2961753176059574e-05</internalNodes>
      <leafValues>
        1. -1.6462033381685615e-03</leafValues></_>
    <_>
      <internalNodes>
        0 -1 28 -6.9829133281018585e-05</internalNodes>
      <leafValues>
        -1. 1.6462033381685615e-03</leafValues></_>
    <_>
      <internalNodes>
        0 -1 28 -7.2961753176059574e-05</internalNodes>
      <leafValues>
        1. -1.6462033381685615e-03</leafValues></_>
    <_>
      <internalNodes>
        0 -1 28 -6.9829133281018585e-05</internalNodes>
      <leafValues>
        -1. 1.6462033381685615e-03</leafValues></_>
    <_>
      <internalNodes>
        0 -1 28 -7.2961753176059574e-05</internalNodes>
      <leafValues>
        1. -1.6462033381685615e-03</leafValues></_>
    <_>
      <internalNodes>
        0 -1 28 -6.9829133281018585e-05</internalNodes>
      <leafValues>
        -1. 1.6462033381685615e-03</leafValues></_>
    <_>
      <internalNodes>
        0 -1 28 -7.2961753176059574e-05</internalNodes>
      <leafValues>
        1. -1.6462033381685615e-03</leafValues></_>
    <_>
      <internalNodes>
        0 -1 28 -6.9829133281018585e-05</internalNodes>
      <leafValues>
        -1. 1.6462033381685615e-03</leafValues></_>
    <_>
      <internalNodes>
        0 -1 28 -7.2961753176059574e-05</internalNodes>
      <leafValues>
        1. -1.6462033381685615e-03</leafValues></_>
    <_>
      <internalNodes>
        0 -1 28 -6.9829133281018585e-05</internalNodes>
      <leafValues>
        -1. 1.6462033381685615e-03</leafValues></_>
    <_>
      <internalNodes>
        0 -1 28 -7.2961753176059574e-05</internalNodes>
      <leafValues>
        1. -1.6462033381685615e-03</leafValues></_>
    <_>
      <internalNodes>
        0 -1 28 -6.9829133281018585e-05</internalNodes>
      <leafValues>
        -1. 1.6462033381685615e-03</leafValues></_>
    <_>
      <internalNodes>
        0 -1 28 -7.2961753176059574e-05</internalNodes>
      <leafValues>
        1. -1.6462033381685615e-03</leafValues></_>
    <_>
      <internalNodes>
        0 -1 28 -6.9829133281018585e-05</internalNodes>
      <leafValues>
        -1. 1.6462033381685615e-03</leafValues></_>
    <_>
      <internalNodes>
        0 -1 28 -7.2961753176059574e-05</internalNodes>
      <leafValues>
        1. -1.6462033381685615e-03</leafValues></_>
    <_>
      <internalNodes>
        0 -1 28 -6.9829133281018585e-05</internalNodes>
      <leafValues>
        -1. 1.6462033381685615e-03</leafValues></_>
    <_>
      <internalNodes>
        0 -1 28 -7.2961753176059574e-05</internalNodes>
      <leafValues>
        1. -1.6462033381685615e-03</leafValues></_>
    <_>
      <internalNodes>
        0 -1 28 -6.9829133281018585e-05</internalNodes>
      <leafValues>
        -1. 1.6462033381685615e-03</leafValues></_>
    <_>
      <internalNodes>
        0 -1 28 -7.2961753176059574e-05</internalNodes>
      <leafValues>
        1. -1.6462033381685615e-03</leafValues></_>
    <_>
      <internalNodes>
        0 -1 28 -6.9829133281018585e-05</internalNodes>
      <leafValues>
        -1. 1.6462033381685615e-03</leafValues></_>
    <_>
      <internalNodes>
        0 -1 28 -7.2961753176059574e-05</internalNodes>
      <leafValues>
        1. -1.6462033381685615e-03</leafValues></_>
    <_>
      <internalNodes>
        0 -1 28 -6.9829133281018585e-05</internalNodes>
      <leafValues>
        -1. 1.6462033381685615e-03</leafValues></_>
    <_>
      <internalNodes>
        0 -1 28 -7.2961753176059574e-05</internalNodes>
      <leafValues>
        1. -1.6462033381685615e-03</leafValues></_>
    <_>
      <internalNodes>
        0 -1 28 -6.9829133281018585e-05</internalNodes>
      <leafValues>
        -1. 1.6462033381685615e-03</leafValues></_>
    <_>
      <internalNodes>
        0 -1 28 -7.2961753176059574e-05</internalNodes>
      <leafValues>
        1. -1.6462033381685615e-03</leafValues></_>
    <_>
      <internalNodes>
        0 -1 28 -6.9829133281018585e-05</internalNodes>
      <leafValues>
        -1. 1.6462033381685615e-03</leafValues></_>
    <_>
      <internalNodes>
        0 -1 28 -7.2961753176059574e-05</internalNodes>
      <leafValues>
        1. -1.6462033381685615e-03</leafValues></_>
    <_>
      <internalNodes>
        0 -1 28 -6.9829133281018585e-05</internalNodes>
      <leafValues>
        -1. 1.6462033381685615e-03</leafValues></_>
    <_>
      <internalNodes>
        0 -1 28 -7.2961753176059574e-05</internalNodes>
      <leafValues>
        1. -1.6462033381685615e-03</leafValues></_>
    <_>
      <internalNodes>
        0 -1 28 -6.9829133281018585e-05</internalNodes>
      <leafValues>
        -1. 1.6462033381685615e-03</leafValues></_>
    <_>
      <internalNodes>
        0 -1 28 -7.2961753176059574e-05</internalNodes>
      <leafValues>
        1. -1.6462033381685615e-03</leafValues></_>
    <_>
      <internalNodes>
        0 -1 28 -6.9829133281018585e-05</internalNodes>
      <leafValues>
        -1. 1.6462033381685615e-03</leafValues></_>
    <_>
      <internalNodes>
        0 -1 28 -7.2961753176059574e-05</internalNodes>
      <leafValues>
        1. -1.6462033381685615e-03</leafValues></_>
    <_>
      <internalNodes>
        0 -1 28 -6.9829133281018585e-05</internalNodes>
      <leafValues>
        -1. 1.6462033381685615e-03</leafValues></_>
    <_>
      <internalNodes>
        0 -1 28 -7.2961753176059574e-05</internalNodes>
      <leafValues>
        1. -1.6462033381685615e-03</leafValues></_>
    <_>
      <internalNodes>
        0 -1 28 -6.9829133281018585e-05</internalNodes>
      <leafValues>
        -1. 1.6462033381685615e-03</leafValues></_>
    <_>
      <internalNodes>
        0 -1 28 -7.2961753176059574e-05</internalNodes>
      <leafValues>
        1. -1.6462033381685615e-03</leafValues></_>
    <_>
      <internalNodes>
        0 -1 28 -6.9829133281018585e-05</internalNodes>
      <leafValues>
        -1. 1.6462033381685615e-03</leafValues></_>
    <_>
      <internalNodes>
        0 -1 28 -7.2961753176059574e-05</internalNodes>
      <leafValues>
        1. -1.6462033381685615e-03</leafValues></_>
    <_>
      <internalNodes>
        0 -1 28 -6.9829133281018585e-05</internalNodes>
      <leafValues>
        -1. 1.6462033381685615e-03</leafValues></_>
    <_>
      <internalNodes>
        0 -1 28 -7.2961753176059574e-05</internalNodes>
      <leafValues>
        1. -1.6462033381685615e-03</leafValues></_>
    <_>
      <internalNodes>
        0 -1 28 -6.9829133281018585e-05</internalNodes>
      <leafValues>
        -1. 1.6462033381685615e-03</leafValues></_>
    <_>
      <internalNodes>
        0 -1 28 -7.2961753176059574e-05</internalNodes>
      <leafValues>
        1. -1.6462033381685615e-03</leafValues></_>
    <_>
      <internalNodes>
        0 -1 28 -6.9829133281018585e-05</internalNodes>
      <leafValues>
        -1. 1.6462033381685615e-03</leafValues></_>
    <_>
      <internalNodes>
        0 -1 28 -7.2961753176059574e-05</internalNodes>
      <leafValues>
        1. -1.6462033381685615e-03</leafValues></_>
    <_>
      <internalNodes>
        0 -1 28 -6.9829133281018585e-05</internalNodes>
      <leafValues>
        -1. 1.6462033381685615e-03</leafValues></_>
    <_>
      <internalNodes>
        0 -1 28 -7.2961753176059574e-05</internalNodes>
      <leafValues>
        1. -1.6462033381685615e-03</leafValues></_>
    <_>
      <internalNodes>
        0 -1 28 -6.9829133281018585e-05</internalNodes>
      <leafValues>
        -1. 1.6462033381685615e-03</leafValues></_>
    <_>
      <internalNodes>
        0 -1 28 -7.2961753176059574e-05</internalNodes>
      <leafValues>
        1. -1.6462033381685615e-03</leafValues></_>
    <_>
      <internalNodes>
        0 -1 28 -6.9829133281018585e-05</internalNodes>
      <leafValues>
        -1. 1.6462033381685615e-03</leafValues></_>
    <_>
      <internalNodes>
        0 -1 28 -7.2961753176059574e-05</internalNodes>
      <leafValues>
        1. -1.6462033381685615e-03</leafValues></_>
    <_>
      <internalNodes>
        0 -1 28 -6.9829133281018585e-05</internalNodes>
      <leafValues>
        -1. 1.6462033381685615e-03</leafValues></_>
    <_>
      <internalNodes>
        0 -1 28 -7.2961753176059574e-05</internalNodes>
      <leafValues>
        1. -1.6462033381685615e-03</leafValues></_>
    <_>
      <internalNodes>
        0 -1 28 -6.9829133281018585e-05</internalNodes>
      <leafValues>
        -1. 1.6462033381685615e-03</leafValues></_>
    <_>
      <internalNodes>
        0 -1 28 -7.2961753176059574e-05</internalNodes>
      <leafValues>
        1. -1.6462033381685615e-03</leafValues></_>
    <_>
      <internalNodes>
        0 -1 28 -6.9829133281018585e-05</internalNodes>
      <leafValues>
        -1. 1.6462033381685615e-03</leafValues></_>
    <_>
      <internalNodes>
        0 -1 28 -7.2961753176059574e-05</internalNodes>
      <leafValues>
        1. -1.6462033381685615e-03</leafValues></_>
    <_>
      <internalNodes>
        0 -1 28 -6.9829133281018585e-05</internalNodes>
      <leafValues>
        -1. 1.6462033381685615e-03</leafValues></_>
    <_>
      <internalNodes>
        0 -1 28 -7.2961753176059574e-05</internalNodes>
      <leafValues>
        1. -1.6462033381685615e-03</leafValues></_>
    <_>
      <internalNodes>
        0 -1 28 -6.9829133281018585e-05</internalNodes>
      <leafValues>
        -1. 1.6462033381685615e-03</leafValues></_>
    <_>
      <internalNodes>
        0 -1 28 -7.2961753176059574e-05</internalNodes>
      <leafValues>
        1. -1.6462033381685615e-03</leafValues></_>
    <_>
      <internalNodes>
        0 -1 28 -6.9829133281018585e-05</internalNodes>
      <leafValues>
        -1. 1.6462033381685615e-03</leafValues></_>
    <_>
      <internalNodes>
        0 -1 28 -7.2961753176059574e-05</internalNodes>
      <leafValues>
        1. -1.6462033381685615e-03</leafValues></_>
    <_>
      <internalNodes>
        0 -1 28 -6.9829133281018585e-05</internalNodes>
      <leafValues>
        -1. 1.6462033381685615e-03</leafValues></_>
    <_>
      <internalNodes>
        0 -1 28 -7.2961753176059574e-05</internalNodes>
      <leafValues>
        1. -1.6462033381685615e-03</leafValues></_>
    <_>
      <internalNodes>
        0 -1 28 -6.9829133281018585e-05</internalNodes>
      <leafValues>
        -1. 1.6462033381685615e-03</leafValues></_>
    <_>
      <internalNodes>
        0 -1 28 -7.2961753176059574e-05</internalNodes>
      <leafValues>
        1. -1.6462033381685615e-03</leafValues></_>
    <_>
      <internalNodes>
        0 -1 28 -6.9829133281018585e-05</internalNodes>
      <leafValues>
        -1. 1.6462033381685615e-03</leafValues></_>
    <_>
      <internalNodes>
        0 -1 28 -7.2961753176059574e-05</internalNodes>
      <leafValues>
        1. -1.6462033381685615e-03</leafValues></_>
    <_>
      <internalNodes>
        0 -1 28 -6.9829133281018585e-05</internalNodes>
      <leafValues>
        -1. 1.6462033381685615e-03</leafValues></_></weakClassifiers></stage10>
</opencv_storage>
