<?xml version="1.0"?>
<opencv_storage>
<stage4>
  <maxWeakCount>6</maxWeakCount>
  <stageThreshold>-9.0449380874633789e-01</stageThreshold>
  <weakClassifiers>
    <_>
      <internalNodes>
        0 -1 14366 -2.5065191090106964e-02</internalNodes>
      <leafValues>
        1. -6.9090908765792847e-01</leafValues></_>
    <_>
      <internalNodes>
        0 -1 18981 -1.4200396835803986e-03</internalNodes>
      <leafValues>
        8.1660115718841553e-01 -5.4320347309112549e-01</leafValues></_>
    <_>
      <internalNodes>
        0 -1 666 -2.3233791813254356e-02</internalNodes>
      <leafValues>
        1. -3.7311354279518127e-01</leafValues></_>
    <_>
      <internalNodes>
        0 -1 87126 -2.2730868309736252e-02</internalNodes>
      <leafValues>
        1. -4.0165168046951294e-01</leafValues></_>
    <_>
      <internalNodes>
        0 -1 23173 1.6768325120210648e-02</internalNodes>
      <leafValues>
        5.0721293687820435e-01 -1.</leafValues></_>
    <_>
      <internalNodes>
        0 -1 127204 3.0255891033448279e-05</internalNodes>
      <leafValues>
        5.9717106819152832e-01 -6.6100847721099854e-01</leafValues></_></weakClassifiers></stage4>
</opencv_storage>
